digraph Tree {
node [shape=box, style="filled, rounded", color="black", fontname="helvetica"] ;
edge [fontname="helvetica"] ;
0 [label=<gini = 0.444<br/>samples = 6118<br/>value = [2038, 4080]<br/>class = Desertó>, fillcolor="#9ccef2"] ;
}
